digraph Tree {
node [shape=box, style="filled, rounded", color="black", fontname=helvetica] ;
edge [fontname=helvetica] ;
0 [label="Renew Offer Type <= 1.5\ngini = 0.245\nsamples = 6393\nvalue = [5478, 915]\nclass = No", fillcolor="#e9965a"] ;
1 [label="Income <= 10290.5\ngini = 0.31\nsamples = 4678\nvalue = [3781, 897]\nclass = No", fillcolor="#eb9f68"] ;
0 -> 1 [labeldistance=2.5, labelangle=45, headlabel="True"] ;
2 [label="Marital Status <= 1.5\ngini = 0.193\nsamples = 1251\nvalue = [1116, 135]\nclass = No", fillcolor="#e89051"] ;
1 -> 2 ;
3 [label="Total Claim Amount <= 311.753\ngini = 0.316\nsamples = 509\nvalue = [409, 100]\nclass = No", fillcolor="#eba069"] ;
2 -> 3 ;
4 [label="gini = 0.0\nsamples = 89\nvalue = [89, 0]\nclass = No", fillcolor="#e58139"] ;
3 -> 4 ;
5 [label="Number of Open Complaints <= 3.5\ngini = 0.363\nsamples = 420\nvalue = [320, 100]\nclass = No", fillcolor="#eda877"] ;
3 -> 5 ;
6 [label="Vehicle Size <= 1.5\ngini = 0.343\nsamples = 405\nvalue = [316, 89]\nclass = No", fillcolor="#eca471"] ;
5 -> 6 ;
7 [label="Months Since Policy Inception <= 5.5\ngini = 0.387\nsamples = 324\nvalue = [239, 85]\nclass = No", fillcolor="#eeae7f"] ;
6 -> 7 ;
8 [label="Number of Policies <= 1.5\ngini = 0.444\nsamples = 21\nvalue = [7, 14]\nclass = Yes", fillcolor="#9ccef2"] ;
7 -> 8 ;
9 [label="Monthly Premium Auto <= 75.0\ngini = 0.124\nsamples = 15\nvalue = [1, 14]\nclass = Yes", fillcolor="#47a4e7"] ;
8 -> 9 ;
10 [label="gini = 0.0\nsamples = 1\nvalue = [1, 0]\nclass = No", fillcolor="#e58139"] ;
9 -> 10 ;
11 [label="gini = 0.0\nsamples = 14\nvalue = [0, 14]\nclass = Yes", fillcolor="#399de5"] ;
9 -> 11 ;
12 [label="gini = 0.0\nsamples = 6\nvalue = [6, 0]\nclass = No", fillcolor="#e58139"] ;
8 -> 12 ;
13 [label="Customer Lifetime Value <= 8712.122\ngini = 0.359\nsamples = 303\nvalue = [232, 71]\nclass = No", fillcolor="#eda876"] ;
7 -> 13 ;
14 [label="Months Since Policy Inception <= 91.5\ngini = 0.273\nsamples = 215\nvalue = [180, 35]\nclass = No", fillcolor="#ea9a5f"] ;
13 -> 14 ;
15 [label="Months Since Last Claim <= 15.5\ngini = 0.231\nsamples = 195\nvalue = [169, 26]\nclass = No", fillcolor="#e99457"] ;
14 -> 15 ;
16 [label="Customer Lifetime Value <= 2410.757\ngini = 0.109\nsamples = 104\nvalue = [98, 6]\nclass = No", fillcolor="#e78945"] ;
15 -> 16 ;
17 [label="gini = 0.48\nsamples = 5\nvalue = [2, 3]\nclass = Yes", fillcolor="#bddef6"] ;
16 -> 17 ;
18 [label="gini = 0.059\nsamples = 99\nvalue = [96, 3]\nclass = No", fillcolor="#e6853f"] ;
16 -> 18 ;
19 [label="Months Since Policy Inception <= 46.0\ngini = 0.343\nsamples = 91\nvalue = [71, 20]\nclass = No", fillcolor="#eca471"] ;
15 -> 19 ;
20 [label="gini = 0.465\nsamples = 49\nvalue = [31, 18]\nclass = No", fillcolor="#f4caac"] ;
19 -> 20 ;
21 [label="gini = 0.091\nsamples = 42\nvalue = [40, 2]\nclass = No", fillcolor="#e68743"] ;
19 -> 21 ;
22 [label="Monthly Premium Auto <= 102.5\ngini = 0.495\nsamples = 20\nvalue = [11, 9]\nclass = No", fillcolor="#fae8db"] ;
14 -> 22 ;
23 [label="gini = 0.0\nsamples = 9\nvalue = [9, 0]\nclass = No", fillcolor="#e58139"] ;
22 -> 23 ;
24 [label="Months Since Policy Inception <= 94.0\ngini = 0.298\nsamples = 11\nvalue = [2, 9]\nclass = Yes", fillcolor="#65b3eb"] ;
22 -> 24 ;
25 [label="gini = 0.0\nsamples = 9\nvalue = [0, 9]\nclass = Yes", fillcolor="#399de5"] ;
24 -> 25 ;
26 [label="gini = 0.0\nsamples = 2\nvalue = [2, 0]\nclass = No", fillcolor="#e58139"] ;
24 -> 26 ;
27 [label="Total Claim Amount <= 700.539\ngini = 0.483\nsamples = 88\nvalue = [52, 36]\nclass = No", fillcolor="#f7d8c2"] ;
13 -> 27 ;
28 [label="Vehicle Class <= 1.5\ngini = 0.499\nsamples = 69\nvalue = [33, 36]\nclass = Yes", fillcolor="#eff7fd"] ;
27 -> 28 ;
29 [label="Total Claim Amount <= 628.987\ngini = 0.34\nsamples = 23\nvalue = [18, 5]\nclass = No", fillcolor="#eca470"] ;
28 -> 29 ;
30 [label="gini = 0.0\nsamples = 18\nvalue = [18, 0]\nclass = No", fillcolor="#e58139"] ;
29 -> 30 ;
31 [label="gini = 0.0\nsamples = 5\nvalue = [0, 5]\nclass = Yes", fillcolor="#399de5"] ;
29 -> 31 ;
32 [label="Customer Lifetime Value <= 24336.926\ngini = 0.44\nsamples = 46\nvalue = [15, 31]\nclass = Yes", fillcolor="#99ccf2"] ;
28 -> 32 ;
33 [label="gini = 0.387\nsamples = 42\nvalue = [11, 31]\nclass = Yes", fillcolor="#7fc0ee"] ;
32 -> 33 ;
34 [label="gini = 0.0\nsamples = 4\nvalue = [4, 0]\nclass = No", fillcolor="#e58139"] ;
32 -> 34 ;
35 [label="gini = 0.0\nsamples = 19\nvalue = [19, 0]\nclass = No", fillcolor="#e58139"] ;
27 -> 35 ;
36 [label="Total Claim Amount <= 372.0\ngini = 0.094\nsamples = 81\nvalue = [77, 4]\nclass = No", fillcolor="#e68843"] ;
6 -> 36 ;
37 [label="Monthly Premium Auto <= 75.0\ngini = 0.308\nsamples = 21\nvalue = [17, 4]\nclass = No", fillcolor="#eb9f68"] ;
36 -> 37 ;
38 [label="gini = 0.0\nsamples = 17\nvalue = [17, 0]\nclass = No", fillcolor="#e58139"] ;
37 -> 38 ;
39 [label="gini = 0.0\nsamples = 4\nvalue = [0, 4]\nclass = Yes", fillcolor="#399de5"] ;
37 -> 39 ;
40 [label="gini = 0.0\nsamples = 60\nvalue = [60, 0]\nclass = No", fillcolor="#e58139"] ;
36 -> 40 ;
41 [label="Number of Policies <= 1.5\ngini = 0.391\nsamples = 15\nvalue = [4, 11]\nclass = Yes", fillcolor="#81c1ee"] ;
5 -> 41 ;
42 [label="Coverage <= 0.5\ngini = 0.153\nsamples = 12\nvalue = [1, 11]\nclass = Yes", fillcolor="#4ba6e7"] ;
41 -> 42 ;
43 [label="gini = 0.0\nsamples = 11\nvalue = [0, 11]\nclass = Yes", fillcolor="#399de5"] ;
42 -> 43 ;
44 [label="gini = 0.0\nsamples = 1\nvalue = [1, 0]\nclass = No", fillcolor="#e58139"] ;
42 -> 44 ;
45 [label="gini = 0.0\nsamples = 3\nvalue = [3, 0]\nclass = No", fillcolor="#e58139"] ;
41 -> 45 ;
46 [label="Education <= 3.5\ngini = 0.09\nsamples = 742\nvalue = [707, 35]\nclass = No", fillcolor="#e68743"] ;
2 -> 46 ;
47 [label="Total Claim Amount <= 425.757\ngini = 0.069\nsamples = 725\nvalue = [699, 26]\nclass = No", fillcolor="#e68640"] ;
46 -> 47 ;
48 [label="Number of Open Complaints <= 0.5\ngini = 0.289\nsamples = 131\nvalue = [108, 23]\nclass = No", fillcolor="#eb9c63"] ;
47 -> 48 ;
49 [label="Total Claim Amount <= 423.833\ngini = 0.106\nsamples = 89\nvalue = [84, 5]\nclass = No", fillcolor="#e78845"] ;
48 -> 49 ;
50 [label="gini = 0.0\nsamples = 84\nvalue = [84, 0]\nclass = No", fillcolor="#e58139"] ;
49 -> 50 ;
51 [label="gini = 0.0\nsamples = 5\nvalue = [0, 5]\nclass = Yes", fillcolor="#399de5"] ;
49 -> 51 ;
52 [label="Number of Policies <= 4.0\ngini = 0.49\nsamples = 42\nvalue = [24, 18]\nclass = No", fillcolor="#f8e0ce"] ;
48 -> 52 ;
53 [label="Months Since Policy Inception <= 4.5\ngini = 0.269\nsamples = 25\nvalue = [21, 4]\nclass = No", fillcolor="#ea995f"] ;
52 -> 53 ;
54 [label="gini = 0.0\nsamples = 4\nvalue = [0, 4]\nclass = Yes", fillcolor="#399de5"] ;
53 -> 54 ;
55 [label="gini = 0.0\nsamples = 21\nvalue = [21, 0]\nclass = No", fillcolor="#e58139"] ;
53 -> 55 ;
56 [label="Months Since Last Claim <= 12.0\ngini = 0.291\nsamples = 17\nvalue = [3, 14]\nclass = Yes", fillcolor="#63b2eb"] ;
52 -> 56 ;
57 [label="gini = 0.0\nsamples = 2\nvalue = [2, 0]\nclass = No", fillcolor="#e58139"] ;
56 -> 57 ;
58 [label="Renew Offer Type <= 0.5\ngini = 0.124\nsamples = 15\nvalue = [1, 14]\nclass = Yes", fillcolor="#47a4e7"] ;
56 -> 58 ;
59 [label="gini = 0.0\nsamples = 14\nvalue = [0, 14]\nclass = Yes", fillcolor="#399de5"] ;
58 -> 59 ;
60 [label="gini = 0.0\nsamples = 1\nvalue = [1, 0]\nclass = No", fillcolor="#e58139"] ;
58 -> 60 ;
61 [label="Months Since Policy Inception <= 4.5\ngini = 0.01\nsamples = 594\nvalue = [591, 3]\nclass = No", fillcolor="#e5823a"] ;
47 -> 61 ;
62 [label="Customer Lifetime Value <= 11865.914\ngini = 0.17\nsamples = 32\nvalue = [29, 3]\nclass = No", fillcolor="#e88e4d"] ;
61 -> 62 ;
63 [label="gini = 0.0\nsamples = 26\nvalue = [26, 0]\nclass = No", fillcolor="#e58139"] ;
62 -> 63 ;
64 [label="Customer Lifetime Value <= 15057.948\ngini = 0.5\nsamples = 6\nvalue = [3, 3]\nclass = No", fillcolor="#ffffff"] ;
62 -> 64 ;
65 [label="gini = 0.0\nsamples = 3\nvalue = [0, 3]\nclass = Yes", fillcolor="#399de5"] ;
64 -> 65 ;
66 [label="gini = 0.0\nsamples = 3\nvalue = [3, 0]\nclass = No", fillcolor="#e58139"] ;
64 -> 66 ;
67 [label="gini = 0.0\nsamples = 562\nvalue = [562, 0]\nclass = No", fillcolor="#e58139"] ;
61 -> 67 ;
68 [label="Customer Lifetime Value <= 8393.212\ngini = 0.498\nsamples = 17\nvalue = [8, 9]\nclass = Yes", fillcolor="#e9f4fc"] ;
46 -> 68 ;
69 [label="gini = 0.0\nsamples = 7\nvalue = [7, 0]\nclass = No", fillcolor="#e58139"] ;
68 -> 69 ;
70 [label="Months Since Last Claim <= 18.5\ngini = 0.18\nsamples = 10\nvalue = [1, 9]\nclass = Yes", fillcolor="#4fa8e8"] ;
68 -> 70 ;
71 [label="gini = 0.0\nsamples = 9\nvalue = [0, 9]\nclass = Yes", fillcolor="#399de5"] ;
70 -> 71 ;
72 [label="gini = 0.0\nsamples = 1\nvalue = [1, 0]\nclass = No", fillcolor="#e58139"] ;
70 -> 72 ;
73 [label="EmploymentStatus <= 2.5\ngini = 0.346\nsamples = 3427\nvalue = [2665, 762]\nclass = No", fillcolor="#eca572"] ;
1 -> 73 ;
74 [label="Renew Offer Type <= 0.5\ngini = 0.312\nsamples = 3259\nvalue = [2630, 629]\nclass = No", fillcolor="#eb9f68"] ;
73 -> 74 ;
75 [label="Total Claim Amount <= 303.629\ngini = 0.238\nsamples = 1645\nvalue = [1418, 227]\nclass = No", fillcolor="#e99559"] ;
74 -> 75 ;
76 [label="Education <= 3.5\ngini = 0.122\nsamples = 583\nvalue = [545, 38]\nclass = No", fillcolor="#e78a47"] ;
75 -> 76 ;
77 [label="Income <= 12534.0\ngini = 0.085\nsamples = 516\nvalue = [493, 23]\nclass = No", fillcolor="#e68742"] ;
76 -> 77 ;
78 [label="Sales Channel <= 2.0\ngini = 0.48\nsamples = 5\nvalue = [2, 3]\nclass = Yes", fillcolor="#bddef6"] ;
77 -> 78 ;
79 [label="gini = 0.0\nsamples = 2\nvalue = [2, 0]\nclass = No", fillcolor="#e58139"] ;
78 -> 79 ;
80 [label="gini = 0.0\nsamples = 3\nvalue = [0, 3]\nclass = Yes", fillcolor="#399de5"] ;
78 -> 80 ;
81 [label="Customer Lifetime Value <= 4358.945\ngini = 0.075\nsamples = 511\nvalue = [491, 20]\nclass = No", fillcolor="#e68641"] ;
77 -> 81 ;
82 [label="Customer Lifetime Value <= 4226.76\ngini = 0.185\nsamples = 116\nvalue = [104, 12]\nclass = No", fillcolor="#e89050"] ;
81 -> 82 ;
83 [label="Marital Status <= 0.5\ngini = 0.118\nsamples = 111\nvalue = [104, 7]\nclass = No", fillcolor="#e78946"] ;
82 -> 83 ;
84 [label="Education <= 1.5\ngini = 0.366\nsamples = 29\nvalue = [22, 7]\nclass = No", fillcolor="#eda978"] ;
83 -> 84 ;
85 [label="gini = 0.26\nsamples = 26\nvalue = [22, 4]\nclass = No", fillcolor="#ea985d"] ;
84 -> 85 ;
86 [label="gini = 0.0\nsamples = 3\nvalue = [0, 3]\nclass = Yes", fillcolor="#399de5"] ;
84 -> 86 ;
87 [label="gini = 0.0\nsamples = 82\nvalue = [82, 0]\nclass = No", fillcolor="#e58139"] ;
83 -> 87 ;
88 [label="gini = 0.0\nsamples = 5\nvalue = [0, 5]\nclass = Yes", fillcolor="#399de5"] ;
82 -> 88 ;
89 [label="Months Since Policy Inception <= 17.5\ngini = 0.04\nsamples = 395\nvalue = [387, 8]\nclass = No", fillcolor="#e6843d"] ;
81 -> 89 ;
90 [label="Income <= 96003.5\ngini = 0.198\nsamples = 72\nvalue = [64, 8]\nclass = No", fillcolor="#e89152"] ;
89 -> 90 ;
91 [label="Monthly Premium Auto <= 62.5\ngini = 0.138\nsamples = 67\nvalue = [62, 5]\nclass = No", fillcolor="#e78b49"] ;
90 -> 91 ;
92 [label="gini = 0.459\nsamples = 14\nvalue = [9, 5]\nclass = No", fillcolor="#f3c7a7"] ;
91 -> 92 ;
93 [label="gini = 0.0\nsamples = 53\nvalue = [53, 0]\nclass = No", fillcolor="#e58139"] ;
91 -> 93 ;
94 [label="Marital Status <= 0.5\ngini = 0.48\nsamples = 5\nvalue = [2, 3]\nclass = Yes", fillcolor="#bddef6"] ;
90 -> 94 ;
95 [label="gini = 0.0\nsamples = 3\nvalue = [0, 3]\nclass = Yes", fillcolor="#399de5"] ;
94 -> 95 ;
96 [label="gini = 0.0\nsamples = 2\nvalue = [2, 0]\nclass = No", fillcolor="#e58139"] ;
94 -> 96 ;
97 [label="gini = 0.0\nsamples = 323\nvalue = [323, 0]\nclass = No", fillcolor="#e58139"] ;
89 -> 97 ;
98 [label="Monthly Premium Auto <= 115.5\ngini = 0.348\nsamples = 67\nvalue = [52, 15]\nclass = No", fillcolor="#eca572"] ;
76 -> 98 ;
99 [label="Total Claim Amount <= 55.941\ngini = 0.183\nsamples = 49\nvalue = [44, 5]\nclass = No", fillcolor="#e88f50"] ;
98 -> 99 ;
100 [label="Vehicle Size <= 0.5\ngini = 0.494\nsamples = 9\nvalue = [4, 5]\nclass = Yes", fillcolor="#d7ebfa"] ;
99 -> 100 ;
101 [label="gini = 0.0\nsamples = 5\nvalue = [0, 5]\nclass = Yes", fillcolor="#399de5"] ;
100 -> 101 ;
102 [label="gini = 0.0\nsamples = 4\nvalue = [4, 0]\nclass = No", fillcolor="#e58139"] ;
100 -> 102 ;
103 [label="gini = 0.0\nsamples = 40\nvalue = [40, 0]\nclass = No", fillcolor="#e58139"] ;
99 -> 103 ;
104 [label="Vehicle Class <= 3.5\ngini = 0.494\nsamples = 18\nvalue = [8, 10]\nclass = Yes", fillcolor="#d7ebfa"] ;
98 -> 104 ;
105 [label="gini = 0.0\nsamples = 7\nvalue = [7, 0]\nclass = No", fillcolor="#e58139"] ;
104 -> 105 ;
106 [label="Total Claim Amount <= 179.36\ngini = 0.165\nsamples = 11\nvalue = [1, 10]\nclass = Yes", fillcolor="#4da7e8"] ;
104 -> 106 ;
107 [label="gini = 0.0\nsamples = 10\nvalue = [0, 10]\nclass = Yes", fillcolor="#399de5"] ;
106 -> 107 ;
108 [label="gini = 0.0\nsamples = 1\nvalue = [1, 0]\nclass = No", fillcolor="#e58139"] ;
106 -> 108 ;
109 [label="Customer Lifetime Value <= 2498.761\ngini = 0.293\nsamples = 1062\nvalue = [873, 189]\nclass = No", fillcolor="#eb9c64"] ;
75 -> 109 ;
110 [label="Income <= 19608.0\ngini = 0.463\nsamples = 22\nvalue = [8, 14]\nclass = Yes", fillcolor="#aad5f4"] ;
109 -> 110 ;
111 [label="gini = 0.0\nsamples = 5\nvalue = [5, 0]\nclass = No", fillcolor="#e58139"] ;
110 -> 111 ;
112 [label="Total Claim Amount <= 318.203\ngini = 0.291\nsamples = 17\nvalue = [3, 14]\nclass = Yes", fillcolor="#63b2eb"] ;
110 -> 112 ;
113 [label="gini = 0.0\nsamples = 2\nvalue = [2, 0]\nclass = No", fillcolor="#e58139"] ;
112 -> 113 ;
114 [label="Total Claim Amount <= 448.739\ngini = 0.124\nsamples = 15\nvalue = [1, 14]\nclass = Yes", fillcolor="#47a4e7"] ;
112 -> 114 ;
115 [label="gini = 0.0\nsamples = 14\nvalue = [0, 14]\nclass = Yes", fillcolor="#399de5"] ;
114 -> 115 ;
116 [label="gini = 0.0\nsamples = 1\nvalue = [1, 0]\nclass = No", fillcolor="#e58139"] ;
114 -> 116 ;
117 [label="Location Code <= 1.5\ngini = 0.28\nsamples = 1040\nvalue = [865, 175]\nclass = No", fillcolor="#ea9a61"] ;
109 -> 117 ;
118 [label="Marital Status <= 0.5\ngini = 0.315\nsamples = 826\nvalue = [664, 162]\nclass = No", fillcolor="#eba069"] ;
117 -> 118 ;
119 [label="Months Since Policy Inception <= 62.5\ngini = 0.43\nsamples = 195\nvalue = [134, 61]\nclass = No", fillcolor="#f1ba93"] ;
118 -> 119 ;
120 [label="Income <= 14706.0\ngini = 0.291\nsamples = 113\nvalue = [93, 20]\nclass = No", fillcolor="#eb9c64"] ;
119 -> 120 ;
121 [label="Sales Channel <= 1.0\ngini = 0.18\nsamples = 10\nvalue = [1, 9]\nclass = Yes", fillcolor="#4fa8e8"] ;
120 -> 121 ;
122 [label="gini = 0.0\nsamples = 9\nvalue = [0, 9]\nclass = Yes", fillcolor="#399de5"] ;
121 -> 122 ;
123 [label="gini = 0.0\nsamples = 1\nvalue = [1, 0]\nclass = No", fillcolor="#e58139"] ;
121 -> 123 ;
124 [label="Monthly Premium Auto <= 206.5\ngini = 0.191\nsamples = 103\nvalue = [92, 11]\nclass = No", fillcolor="#e89051"] ;
120 -> 124 ;
125 [label="gini = 0.133\nsamples = 98\nvalue = [91, 7]\nclass = No", fillcolor="#e78b48"] ;
124 -> 125 ;
126 [label="gini = 0.32\nsamples = 5\nvalue = [1, 4]\nclass = Yes", fillcolor="#6ab6ec"] ;
124 -> 126 ;
127 [label="Education <= 3.5\ngini = 0.5\nsamples = 82\nvalue = [41, 41]\nclass = No", fillcolor="#ffffff"] ;
119 -> 127 ;
128 [label="Customer Lifetime Value <= 31957.943\ngini = 0.476\nsamples = 64\nvalue = [39, 25]\nclass = No", fillcolor="#f6d2b8"] ;
127 -> 128 ;
129 [label="gini = 0.401\nsamples = 54\nvalue = [39, 15]\nclass = No", fillcolor="#efb185"] ;
128 -> 129 ;
130 [label="gini = 0.0\nsamples = 10\nvalue = [0, 10]\nclass = Yes", fillcolor="#399de5"] ;
128 -> 130 ;
131 [label="Income <= 13901.0\ngini = 0.198\nsamples = 18\nvalue = [2, 16]\nclass = Yes", fillcolor="#52a9e8"] ;
127 -> 131 ;
132 [label="gini = 0.0\nsamples = 1\nvalue = [1, 0]\nclass = No", fillcolor="#e58139"] ;
131 -> 132 ;
133 [label="gini = 0.111\nsamples = 17\nvalue = [1, 16]\nclass = Yes", fillcolor="#45a3e7"] ;
131 -> 133 ;
134 [label="Total Claim Amount <= 566.733\ngini = 0.269\nsamples = 631\nvalue = [530, 101]\nclass = No", fillcolor="#ea995f"] ;
118 -> 134 ;
135 [label="Customer Lifetime Value <= 11334.78\ngini = 0.322\nsamples = 437\nvalue = [349, 88]\nclass = No", fillcolor="#eca16b"] ;
134 -> 135 ;
136 [label="Customer Lifetime Value <= 6511.343\ngini = 0.273\nsamples = 355\nvalue = [297, 58]\nclass = No", fillcolor="#ea9a60"] ;
135 -> 136 ;
137 [label="gini = 0.349\nsamples = 240\nvalue = [186, 54]\nclass = No", fillcolor="#eda672"] ;
136 -> 137 ;
138 [label="gini = 0.067\nsamples = 115\nvalue = [111, 4]\nclass = No", fillcolor="#e68640"] ;
136 -> 138 ;
139 [label="Customer Lifetime Value <= 12733.082\ngini = 0.464\nsamples = 82\nvalue = [52, 30]\nclass = No", fillcolor="#f4caab"] ;
135 -> 139 ;
140 [label="gini = 0.422\nsamples = 33\nvalue = [10, 23]\nclass = Yes", fillcolor="#8fc8f0"] ;
139 -> 140 ;
141 [label="gini = 0.245\nsamples = 49\nvalue = [42, 7]\nclass = No", fillcolor="#e9965a"] ;
139 -> 141 ;
142 [label="Monthly Premium Auto <= 128.5\ngini = 0.125\nsamples = 194\nvalue = [181, 13]\nclass = No", fillcolor="#e78a47"] ;
134 -> 142 ;
143 [label="gini = 0.0\nsamples = 107\nvalue = [107, 0]\nclass = No", fillcolor="#e58139"] ;
142 -> 143 ;
144 [label="Total Claim Amount <= 669.6\ngini = 0.254\nsamples = 87\nvalue = [74, 13]\nclass = No", fillcolor="#ea975c"] ;
142 -> 144 ;
145 [label="gini = 0.48\nsamples = 25\nvalue = [15, 10]\nclass = No", fillcolor="#f6d5bd"] ;
144 -> 145 ;
146 [label="gini = 0.092\nsamples = 62\nvalue = [59, 3]\nclass = No", fillcolor="#e68743"] ;
144 -> 146 ;
147 [label="Total Claim Amount <= 304.286\ngini = 0.114\nsamples = 214\nvalue = [201, 13]\nclass = No", fillcolor="#e78946"] ;
117 -> 147 ;
148 [label="gini = 0.0\nsamples = 4\nvalue = [0, 4]\nclass = Yes", fillcolor="#399de5"] ;
147 -> 148 ;
149 [label="Months Since Last Claim <= 33.5\ngini = 0.082\nsamples = 210\nvalue = [201, 9]\nclass = No", fillcolor="#e68742"] ;
147 -> 149 ;
150 [label="Sales Channel <= 0.5\ngini = 0.058\nsamples = 199\nvalue = [193, 6]\nclass = No", fillcolor="#e6853f"] ;
149 -> 150 ;
151 [label="Months Since Last Claim <= 12.5\ngini = 0.13\nsamples = 86\nvalue = [80, 6]\nclass = No", fillcolor="#e78a48"] ;
150 -> 151 ;
152 [label="gini = 0.266\nsamples = 38\nvalue = [32, 6]\nclass = No", fillcolor="#ea995e"] ;
151 -> 152 ;
153 [label="gini = 0.0\nsamples = 48\nvalue = [48, 0]\nclass = No", fillcolor="#e58139"] ;
151 -> 153 ;
154 [label="gini = 0.0\nsamples = 113\nvalue = [113, 0]\nclass = No", fillcolor="#e58139"] ;
150 -> 154 ;
155 [label="Number of Open Complaints <= 0.5\ngini = 0.397\nsamples = 11\nvalue = [8, 3]\nclass = No", fillcolor="#efb083"] ;
149 -> 155 ;
156 [label="gini = 0.0\nsamples = 8\nvalue = [8, 0]\nclass = No", fillcolor="#e58139"] ;
155 -> 156 ;
157 [label="gini = 0.0\nsamples = 3\nvalue = [0, 3]\nclass = Yes", fillcolor="#399de5"] ;
155 -> 157 ;
158 [label="Total Claim Amount <= 467.653\ngini = 0.374\nsamples = 1614\nvalue = [1212, 402]\nclass = No", fillcolor="#eeab7b"] ;
74 -> 158 ;
159 [label="Sales Channel <= 0.5\ngini = 0.331\nsamples = 1183\nvalue = [935, 248]\nclass = No", fillcolor="#eca26e"] ;
158 -> 159 ;
160 [label="Income <= 35529.5\ngini = 0.423\nsamples = 355\nvalue = [247, 108]\nclass = No", fillcolor="#f0b890"] ;
159 -> 160 ;
161 [label="Months Since Last Claim <= 5.0\ngini = 0.133\nsamples = 70\nvalue = [65, 5]\nclass = No", fillcolor="#e78b48"] ;
160 -> 161 ;
162 [label="Education <= 0.5\ngini = 0.486\nsamples = 12\nvalue = [7, 5]\nclass = No", fillcolor="#f8dbc6"] ;
161 -> 162 ;
163 [label="Monthly Premium Auto <= 73.5\ngini = 0.278\nsamples = 6\nvalue = [1, 5]\nclass = Yes", fillcolor="#61b1ea"] ;
162 -> 163 ;
164 [label="gini = 0.0\nsamples = 5\nvalue = [0, 5]\nclass = Yes", fillcolor="#399de5"] ;
163 -> 164 ;
165 [label="gini = 0.0\nsamples = 1\nvalue = [1, 0]\nclass = No", fillcolor="#e58139"] ;
163 -> 165 ;
166 [label="gini = 0.0\nsamples = 6\nvalue = [6, 0]\nclass = No", fillcolor="#e58139"] ;
162 -> 166 ;
167 [label="gini = 0.0\nsamples = 58\nvalue = [58, 0]\nclass = No", fillcolor="#e58139"] ;
161 -> 167 ;
168 [label="Months Since Policy Inception <= 14.5\ngini = 0.462\nsamples = 285\nvalue = [182, 103]\nclass = No", fillcolor="#f4c8a9"] ;
160 -> 168 ;
169 [label="Number of Policies <= 8.5\ngini = 0.114\nsamples = 33\nvalue = [31, 2]\nclass = No", fillcolor="#e78946"] ;
168 -> 169 ;
170 [label="gini = 0.0\nsamples = 30\nvalue = [30, 0]\nclass = No", fillcolor="#e58139"] ;
169 -> 170 ;
171 [label="Location Code <= 1.0\ngini = 0.444\nsamples = 3\nvalue = [1, 2]\nclass = Yes", fillcolor="#9ccef2"] ;
169 -> 171 ;
172 [label="gini = 0.0\nsamples = 2\nvalue = [0, 2]\nclass = Yes", fillcolor="#399de5"] ;
171 -> 172 ;
173 [label="gini = 0.0\nsamples = 1\nvalue = [1, 0]\nclass = No", fillcolor="#e58139"] ;
171 -> 173 ;
174 [label="Total Claim Amount <= 49.443\ngini = 0.48\nsamples = 252\nvalue = [151, 101]\nclass = No", fillcolor="#f6d5bd"] ;
168 -> 174 ;
175 [label="Customer Lifetime Value <= 2806.934\ngini = 0.251\nsamples = 34\nvalue = [29, 5]\nclass = No", fillcolor="#e9975b"] ;
174 -> 175 ;
176 [label="Monthly Premium Auto <= 69.0\ngini = 0.469\nsamples = 8\nvalue = [3, 5]\nclass = Yes", fillcolor="#b0d8f5"] ;
175 -> 176 ;
177 [label="gini = 0.0\nsamples = 3\nvalue = [3, 0]\nclass = No", fillcolor="#e58139"] ;
176 -> 177 ;
178 [label="gini = 0.0\nsamples = 5\nvalue = [0, 5]\nclass = Yes", fillcolor="#399de5"] ;
176 -> 178 ;
179 [label="gini = 0.0\nsamples = 26\nvalue = [26, 0]\nclass = No", fillcolor="#e58139"] ;
175 -> 179 ;
180 [label="Total Claim Amount <= 60.132\ngini = 0.493\nsamples = 218\nvalue = [122, 96]\nclass = No", fillcolor="#f9e4d5"] ;
174 -> 180 ;
181 [label="gini = 0.0\nsamples = 15\nvalue = [0, 15]\nclass = Yes", fillcolor="#399de5"] ;
180 -> 181 ;
182 [label="Monthly Premium Auto <= 82.5\ngini = 0.48\nsamples = 203\nvalue = [122, 81]\nclass = No", fillcolor="#f6d5bc"] ;
180 -> 182 ;
183 [label="gini = 0.499\nsamples = 140\nvalue = [73, 67]\nclass = No", fillcolor="#fdf5ef"] ;
182 -> 183 ;
184 [label="gini = 0.346\nsamples = 63\nvalue = [49, 14]\nclass = No", fillcolor="#eca572"] ;
182 -> 184 ;
185 [label="Marital Status <= 0.5\ngini = 0.281\nsamples = 828\nvalue = [688, 140]\nclass = No", fillcolor="#ea9b61"] ;
159 -> 185 ;
186 [label="Income <= 40368.0\ngini = 0.427\nsamples = 97\nvalue = [67, 30]\nclass = No", fillcolor="#f1b992"] ;
185 -> 186 ;
187 [label="Income <= 33702.5\ngini = 0.488\nsamples = 38\nvalue = [16, 22]\nclass = Yes", fillcolor="#c9e4f8"] ;
186 -> 187 ;
188 [label="Education <= 1.5\ngini = 0.463\nsamples = 22\nvalue = [14, 8]\nclass = No", fillcolor="#f4c9aa"] ;
187 -> 188 ;
189 [label="gini = 0.0\nsamples = 12\nvalue = [12, 0]\nclass = No", fillcolor="#e58139"] ;
188 -> 189 ;
190 [label="Months Since Policy Inception <= 46.0\ngini = 0.32\nsamples = 10\nvalue = [2, 8]\nclass = Yes", fillcolor="#6ab6ec"] ;
188 -> 190 ;
191 [label="gini = 0.0\nsamples = 8\nvalue = [0, 8]\nclass = Yes", fillcolor="#399de5"] ;
190 -> 191 ;
192 [label="gini = 0.0\nsamples = 2\nvalue = [2, 0]\nclass = No", fillcolor="#e58139"] ;
190 -> 192 ;
193 [label="Vehicle Size <= 0.5\ngini = 0.219\nsamples = 16\nvalue = [2, 14]\nclass = Yes", fillcolor="#55abe9"] ;
187 -> 193 ;
194 [label="gini = 0.0\nsamples = 1\nvalue = [1, 0]\nclass = No", fillcolor="#e58139"] ;
193 -> 194 ;
195 [label="Location Code <= 0.5\ngini = 0.124\nsamples = 15\nvalue = [1, 14]\nclass = Yes", fillcolor="#47a4e7"] ;
193 -> 195 ;
196 [label="gini = 0.0\nsamples = 1\nvalue = [1, 0]\nclass = No", fillcolor="#e58139"] ;
195 -> 196 ;
197 [label="gini = 0.0\nsamples = 14\nvalue = [0, 14]\nclass = Yes", fillcolor="#399de5"] ;
195 -> 197 ;
198 [label="Months Since Last Claim <= 0.5\ngini = 0.234\nsamples = 59\nvalue = [51, 8]\nclass = No", fillcolor="#e99558"] ;
186 -> 198 ;
199 [label="gini = 0.0\nsamples = 3\nvalue = [0, 3]\nclass = Yes", fillcolor="#399de5"] ;
198 -> 199 ;
200 [label="Income <= 88678.0\ngini = 0.163\nsamples = 56\nvalue = [51, 5]\nclass = No", fillcolor="#e88d4c"] ;
198 -> 200 ;
201 [label="gini = 0.0\nsamples = 45\nvalue = [45, 0]\nclass = No", fillcolor="#e58139"] ;
200 -> 201 ;
202 [label="Months Since Last Claim <= 12.0\ngini = 0.496\nsamples = 11\nvalue = [6, 5]\nclass = No", fillcolor="#fbeade"] ;
200 -> 202 ;
203 [label="gini = 0.0\nsamples = 5\nvalue = [0, 5]\nclass = Yes", fillcolor="#399de5"] ;
202 -> 203 ;
204 [label="gini = 0.0\nsamples = 6\nvalue = [6, 0]\nclass = No", fillcolor="#e58139"] ;
202 -> 204 ;
205 [label="Vehicle Size <= 0.5\ngini = 0.256\nsamples = 731\nvalue = [621, 110]\nclass = No", fillcolor="#ea975c"] ;
185 -> 205 ;
206 [label="Vehicle Class <= 1.5\ngini = 0.412\nsamples = 93\nvalue = [66, 27]\nclass = No", fillcolor="#f0b58a"] ;
205 -> 206 ;
207 [label="EmploymentStatus <= 1.5\ngini = 0.26\nsamples = 52\nvalue = [44, 8]\nclass = No", fillcolor="#ea985d"] ;
206 -> 207 ;
208 [label="Education <= 3.5\ngini = 0.087\nsamples = 44\nvalue = [42, 2]\nclass = No", fillcolor="#e68742"] ;
207 -> 208 ;
209 [label="gini = 0.0\nsamples = 39\nvalue = [39, 0]\nclass = No", fillcolor="#e58139"] ;
208 -> 209 ;
210 [label="gini = 0.48\nsamples = 5\nvalue = [3, 2]\nclass = No", fillcolor="#f6d5bd"] ;
208 -> 210 ;
211 [label="Monthly Premium Auto <= 66.0\ngini = 0.375\nsamples = 8\nvalue = [2, 6]\nclass = Yes", fillcolor="#7bbeee"] ;
207 -> 211 ;
212 [label="gini = 0.0\nsamples = 6\nvalue = [0, 6]\nclass = Yes", fillcolor="#399de5"] ;
211 -> 212 ;
213 [label="gini = 0.0\nsamples = 2\nvalue = [2, 0]\nclass = No", fillcolor="#e58139"] ;
211 -> 213 ;
214 [label="Monthly Premium Auto <= 76.5\ngini = 0.497\nsamples = 41\nvalue = [22, 19]\nclass = No", fillcolor="#fbeee4"] ;
206 -> 214 ;
215 [label="gini = 0.0\nsamples = 10\nvalue = [10, 0]\nclass = No", fillcolor="#e58139"] ;
214 -> 215 ;
216 [label="Income <= 78227.5\ngini = 0.475\nsamples = 31\nvalue = [12, 19]\nclass = Yes", fillcolor="#b6dbf5"] ;
214 -> 216 ;
217 [label="gini = 0.33\nsamples = 24\nvalue = [5, 19]\nclass = Yes", fillcolor="#6db7ec"] ;
216 -> 217 ;
218 [label="gini = 0.0\nsamples = 7\nvalue = [7, 0]\nclass = No", fillcolor="#e58139"] ;
216 -> 218 ;
219 [label="Total Claim Amount <= 256.34\ngini = 0.226\nsamples = 638\nvalue = [555, 83]\nclass = No", fillcolor="#e99457"] ;
205 -> 219 ;
220 [label="Months Since Policy Inception <= 93.5\ngini = 0.12\nsamples = 264\nvalue = [247, 17]\nclass = No", fillcolor="#e78a47"] ;
219 -> 220 ;
221 [label="Total Claim Amount <= 42.805\ngini = 0.076\nsamples = 252\nvalue = [242, 10]\nclass = No", fillcolor="#e68641"] ;
220 -> 221 ;
222 [label="gini = 0.36\nsamples = 34\nvalue = [26, 8]\nclass = No", fillcolor="#eda876"] ;
221 -> 222 ;
223 [label="gini = 0.018\nsamples = 218\nvalue = [216, 2]\nclass = No", fillcolor="#e5823b"] ;
221 -> 223 ;
224 [label="Monthly Premium Auto <= 69.5\ngini = 0.486\nsamples = 12\nvalue = [5, 7]\nclass = Yes", fillcolor="#c6e3f8"] ;
220 -> 224 ;
225 [label="gini = 0.219\nsamples = 8\nvalue = [1, 7]\nclass = Yes", fillcolor="#55abe9"] ;
224 -> 225 ;
226 [label="gini = 0.0\nsamples = 4\nvalue = [4, 0]\nclass = No", fillcolor="#e58139"] ;
224 -> 226 ;
227 [label="Total Claim Amount <= 257.722\ngini = 0.291\nsamples = 374\nvalue = [308, 66]\nclass = No", fillcolor="#eb9c63"] ;
219 -> 227 ;
228 [label="gini = 0.0\nsamples = 4\nvalue = [0, 4]\nclass = Yes", fillcolor="#399de5"] ;
227 -> 228 ;
229 [label="Customer Lifetime Value <= 8653.473\ngini = 0.279\nsamples = 370\nvalue = [308, 62]\nclass = No", fillcolor="#ea9a61"] ;
227 -> 229 ;
230 [label="gini = 0.318\nsamples = 312\nvalue = [250, 62]\nclass = No", fillcolor="#eba06a"] ;
229 -> 230 ;
231 [label="gini = 0.0\nsamples = 58\nvalue = [58, 0]\nclass = No", fillcolor="#e58139"] ;
229 -> 231 ;
232 [label="Customer Lifetime Value <= 6040.837\ngini = 0.459\nsamples = 431\nvalue = [277, 154]\nclass = No", fillcolor="#f3c7a7"] ;
158 -> 232 ;
233 [label="Months Since Last Claim <= 4.5\ngini = 0.499\nsamples = 181\nvalue = [94, 87]\nclass = No", fillcolor="#fdf6f0"] ;
232 -> 233 ;
234 [label="gini = 0.0\nsamples = 22\nvalue = [22, 0]\nclass = No", fillcolor="#e58139"] ;
233 -> 234 ;
235 [label="Customer Lifetime Value <= 3927.416\ngini = 0.496\nsamples = 159\nvalue = [72, 87]\nclass = Yes", fillcolor="#ddeefb"] ;
233 -> 235 ;
236 [label="Months Since Policy Inception <= 95.5\ngini = 0.291\nsamples = 34\nvalue = [28, 6]\nclass = No", fillcolor="#eb9c63"] ;
235 -> 236 ;
237 [label="gini = 0.0\nsamples = 28\nvalue = [28, 0]\nclass = No", fillcolor="#e58139"] ;
236 -> 237 ;
238 [label="gini = 0.0\nsamples = 6\nvalue = [0, 6]\nclass = Yes", fillcolor="#399de5"] ;
236 -> 238 ;
239 [label="Income <= 48195.0\ngini = 0.456\nsamples = 125\nvalue = [44, 81]\nclass = Yes", fillcolor="#a5d2f3"] ;
235 -> 239 ;
240 [label="Education <= 1.5\ngini = 0.493\nsamples = 43\nvalue = [24, 19]\nclass = No", fillcolor="#fae5d6"] ;
239 -> 240 ;
241 [label="Total Claim Amount <= 823.983\ngini = 0.33\nsamples = 24\nvalue = [19, 5]\nclass = No", fillcolor="#eca26d"] ;
240 -> 241 ;
242 [label="gini = 0.0\nsamples = 18\nvalue = [18, 0]\nclass = No", fillcolor="#e58139"] ;
241 -> 242 ;
243 [label="gini = 0.278\nsamples = 6\nvalue = [1, 5]\nclass = Yes", fillcolor="#61b1ea"] ;
241 -> 243 ;
244 [label="Months Since Policy Inception <= 34.5\ngini = 0.388\nsamples = 19\nvalue = [5, 14]\nclass = Yes", fillcolor="#80c0ee"] ;
240 -> 244 ;
245 [label="gini = 0.0\nsamples = 14\nvalue = [0, 14]\nclass = Yes", fillcolor="#399de5"] ;
244 -> 245 ;
246 [label="gini = 0.0\nsamples = 5\nvalue = [5, 0]\nclass = No", fillcolor="#e58139"] ;
244 -> 246 ;
247 [label="Income <= 82366.0\ngini = 0.369\nsamples = 82\nvalue = [20, 62]\nclass = Yes", fillcolor="#79bded"] ;
239 -> 247 ;
248 [label="Sales Channel <= 1.5\ngini = 0.301\nsamples = 76\nvalue = [14, 62]\nclass = Yes", fillcolor="#66b3eb"] ;
247 -> 248 ;
249 [label="gini = 0.142\nsamples = 52\nvalue = [4, 48]\nclass = Yes", fillcolor="#49a5e7"] ;
248 -> 249 ;
250 [label="gini = 0.486\nsamples = 24\nvalue = [10, 14]\nclass = Yes", fillcolor="#c6e3f8"] ;
248 -> 250 ;
251 [label="gini = 0.0\nsamples = 6\nvalue = [6, 0]\nclass = No", fillcolor="#e58139"] ;
247 -> 251 ;
252 [label="Months Since Policy Inception <= 59.5\ngini = 0.392\nsamples = 250\nvalue = [183, 67]\nclass = No", fillcolor="#efaf81"] ;
232 -> 252 ;
253 [label="Months Since Policy Inception <= 58.5\ngini = 0.449\nsamples = 188\nvalue = [124, 64]\nclass = No", fillcolor="#f2c29f"] ;
252 -> 253 ;
254 [label="Income <= 99502.0\ngini = 0.419\nsamples = 174\nvalue = [122, 52]\nclass = No", fillcolor="#f0b78d"] ;
253 -> 254 ;
255 [label="Income <= 58447.0\ngini = 0.398\nsamples = 168\nvalue = [122, 46]\nclass = No", fillcolor="#efb184"] ;
254 -> 255 ;
256 [label="Months Since Last Claim <= 25.5\ngini = 0.458\nsamples = 121\nvalue = [78, 43]\nclass = No", fillcolor="#f3c6a6"] ;
255 -> 256 ;
257 [label="gini = 0.486\nsamples = 103\nvalue = [60, 43]\nclass = No", fillcolor="#f8dbc7"] ;
256 -> 257 ;
258 [label="gini = 0.0\nsamples = 18\nvalue = [18, 0]\nclass = No", fillcolor="#e58139"] ;
256 -> 258 ;
259 [label="Monthly Premium Auto <= 92.0\ngini = 0.12\nsamples = 47\nvalue = [44, 3]\nclass = No", fillcolor="#e78a46"] ;
255 -> 259 ;
260 [label="gini = 0.48\nsamples = 5\nvalue = [2, 3]\nclass = Yes", fillcolor="#bddef6"] ;
259 -> 260 ;
261 [label="gini = 0.0\nsamples = 42\nvalue = [42, 0]\nclass = No", fillcolor="#e58139"] ;
259 -> 261 ;
262 [label="gini = 0.0\nsamples = 6\nvalue = [0, 6]\nclass = Yes", fillcolor="#399de5"] ;
254 -> 262 ;
263 [label="Customer Lifetime Value <= 11850.132\ngini = 0.245\nsamples = 14\nvalue = [2, 12]\nclass = Yes", fillcolor="#5aade9"] ;
253 -> 263 ;
264 [label="gini = 0.0\nsamples = 2\nvalue = [2, 0]\nclass = No", fillcolor="#e58139"] ;
263 -> 264 ;
265 [label="gini = 0.0\nsamples = 12\nvalue = [0, 12]\nclass = Yes", fillcolor="#399de5"] ;
263 -> 265 ;
266 [label="Customer Lifetime Value <= 6748.147\ngini = 0.092\nsamples = 62\nvalue = [59, 3]\nclass = No", fillcolor="#e68743"] ;
252 -> 266 ;
267 [label="Customer Lifetime Value <= 6621.62\ngini = 0.5\nsamples = 6\nvalue = [3, 3]\nclass = No", fillcolor="#ffffff"] ;
266 -> 267 ;
268 [label="gini = 0.0\nsamples = 3\nvalue = [3, 0]\nclass = No", fillcolor="#e58139"] ;
267 -> 268 ;
269 [label="gini = 0.0\nsamples = 3\nvalue = [0, 3]\nclass = Yes", fillcolor="#399de5"] ;
267 -> 269 ;
270 [label="gini = 0.0\nsamples = 56\nvalue = [56, 0]\nclass = No", fillcolor="#e58139"] ;
266 -> 270 ;
271 [label="Vehicle Size <= 1.5\ngini = 0.33\nsamples = 168\nvalue = [35, 133]\nclass = Yes", fillcolor="#6db7ec"] ;
73 -> 271 ;
272 [label="Income <= 28603.5\ngini = 0.267\nsamples = 151\nvalue = [24, 127]\nclass = Yes", fillcolor="#5eb0ea"] ;
271 -> 272 ;
273 [label="Months Since Policy Inception <= 2.5\ngini = 0.244\nsamples = 148\nvalue = [21, 127]\nclass = Yes", fillcolor="#5aade9"] ;
272 -> 273 ;
274 [label="gini = 0.0\nsamples = 2\nvalue = [2, 0]\nclass = No", fillcolor="#e58139"] ;
273 -> 274 ;
275 [label="Total Claim Amount <= 418.588\ngini = 0.226\nsamples = 146\nvalue = [19, 127]\nclass = Yes", fillcolor="#57ace9"] ;
273 -> 275 ;
276 [label="Months Since Policy Inception <= 85.0\ngini = 0.061\nsamples = 63\nvalue = [2, 61]\nclass = Yes", fillcolor="#3fa0e6"] ;
275 -> 276 ;
277 [label="Months Since Policy Inception <= 11.5\ngini = 0.032\nsamples = 62\nvalue = [1, 61]\nclass = Yes", fillcolor="#3c9fe5"] ;
276 -> 277 ;
278 [label="Monthly Premium Auto <= 70.5\ngini = 0.278\nsamples = 6\nvalue = [1, 5]\nclass = Yes", fillcolor="#61b1ea"] ;
277 -> 278 ;
279 [label="gini = 0.0\nsamples = 1\nvalue = [1, 0]\nclass = No", fillcolor="#e58139"] ;
278 -> 279 ;
280 [label="gini = 0.0\nsamples = 5\nvalue = [0, 5]\nclass = Yes", fillcolor="#399de5"] ;
278 -> 280 ;
281 [label="gini = 0.0\nsamples = 56\nvalue = [0, 56]\nclass = Yes", fillcolor="#399de5"] ;
277 -> 281 ;
282 [label="gini = 0.0\nsamples = 1\nvalue = [1, 0]\nclass = No", fillcolor="#e58139"] ;
276 -> 282 ;
283 [label="Total Claim Amount <= 448.8\ngini = 0.326\nsamples = 83\nvalue = [17, 66]\nclass = Yes", fillcolor="#6cb6ec"] ;
275 -> 283 ;
284 [label="gini = 0.0\nsamples = 3\nvalue = [3, 0]\nclass = No", fillcolor="#e58139"] ;
283 -> 284 ;
285 [label="Months Since Policy Inception <= 25.0\ngini = 0.289\nsamples = 80\nvalue = [14, 66]\nclass = Yes", fillcolor="#63b2eb"] ;
283 -> 285 ;
286 [label="gini = 0.0\nsamples = 2\nvalue = [2, 0]\nclass = No", fillcolor="#e58139"] ;
285 -> 286 ;
287 [label="Customer Lifetime Value <= 2285.574\ngini = 0.26\nsamples = 78\nvalue = [12, 66]\nclass = Yes", fillcolor="#5dafea"] ;
285 -> 287 ;
288 [label="gini = 0.0\nsamples = 1\nvalue = [1, 0]\nclass = No", fillcolor="#e58139"] ;
287 -> 288 ;
289 [label="Number of Policies <= 1.5\ngini = 0.245\nsamples = 77\nvalue = [11, 66]\nclass = Yes", fillcolor="#5aade9"] ;
287 -> 289 ;
290 [label="gini = 0.0\nsamples = 29\nvalue = [0, 29]\nclass = Yes", fillcolor="#399de5"] ;
289 -> 290 ;
291 [label="gini = 0.353\nsamples = 48\nvalue = [11, 37]\nclass = Yes", fillcolor="#74baed"] ;
289 -> 291 ;
292 [label="gini = 0.0\nsamples = 3\nvalue = [3, 0]\nclass = No", fillcolor="#e58139"] ;
272 -> 292 ;
293 [label="Monthly Premium Auto <= 92.5\ngini = 0.457\nsamples = 17\nvalue = [11, 6]\nclass = No", fillcolor="#f3c6a5"] ;
271 -> 293 ;
294 [label="gini = 0.0\nsamples = 11\nvalue = [11, 0]\nclass = No", fillcolor="#e58139"] ;
293 -> 294 ;
295 [label="gini = 0.0\nsamples = 6\nvalue = [0, 6]\nclass = Yes", fillcolor="#399de5"] ;
293 -> 295 ;
296 [label="Customer Lifetime Value <= 2227.799\ngini = 0.021\nsamples = 1715\nvalue = [1697, 18]\nclass = No", fillcolor="#e5823b"] ;
0 -> 296 [labeldistance=2.5, labelangle=-45, headlabel="False"] ;
297 [label="EmploymentStatus <= 3.5\ngini = 0.408\nsamples = 21\nvalue = [15, 6]\nclass = No", fillcolor="#efb388"] ;
296 -> 297 ;
298 [label="gini = 0.0\nsamples = 6\nvalue = [0, 6]\nclass = Yes", fillcolor="#399de5"] ;
297 -> 298 ;
299 [label="gini = 0.0\nsamples = 15\nvalue = [15, 0]\nclass = No", fillcolor="#e58139"] ;
297 -> 299 ;
300 [label="Education <= 3.5\ngini = 0.014\nsamples = 1694\nvalue = [1682, 12]\nclass = No", fillcolor="#e5823a"] ;
296 -> 300 ;
301 [label="Customer Lifetime Value <= 23565.714\ngini = 0.006\nsamples = 1546\nvalue = [1541, 5]\nclass = No", fillcolor="#e5813a"] ;
300 -> 301 ;
302 [label="Months Since Last Claim <= 0.5\ngini = 0.003\nsamples = 1482\nvalue = [1480, 2]\nclass = No", fillcolor="#e58139"] ;
301 -> 302 ;
303 [label="Total Claim Amount <= 557.45\ngini = 0.07\nsamples = 55\nvalue = [53, 2]\nclass = No", fillcolor="#e68640"] ;
302 -> 303 ;
304 [label="gini = 0.0\nsamples = 45\nvalue = [45, 0]\nclass = No", fillcolor="#e58139"] ;
303 -> 304 ;
305 [label="Total Claim Amount <= 562.25\ngini = 0.32\nsamples = 10\nvalue = [8, 2]\nclass = No", fillcolor="#eca06a"] ;
303 -> 305 ;
306 [label="gini = 0.0\nsamples = 2\nvalue = [0, 2]\nclass = Yes", fillcolor="#399de5"] ;
305 -> 306 ;
307 [label="gini = 0.0\nsamples = 8\nvalue = [8, 0]\nclass = No", fillcolor="#e58139"] ;
305 -> 307 ;
308 [label="gini = 0.0\nsamples = 1427\nvalue = [1427, 0]\nclass = No", fillcolor="#e58139"] ;
302 -> 308 ;
309 [label="Customer Lifetime Value <= 23650.396\ngini = 0.089\nsamples = 64\nvalue = [61, 3]\nclass = No", fillcolor="#e68743"] ;
301 -> 309 ;
310 [label="gini = 0.0\nsamples = 3\nvalue = [0, 3]\nclass = Yes", fillcolor="#399de5"] ;
309 -> 310 ;
311 [label="gini = 0.0\nsamples = 61\nvalue = [61, 0]\nclass = No", fillcolor="#e58139"] ;
309 -> 311 ;
312 [label="Customer Lifetime Value <= 2560.994\ngini = 0.09\nsamples = 148\nvalue = [141, 7]\nclass = No", fillcolor="#e68743"] ;
300 -> 312 ;
313 [label="Vehicle Size <= 1.5\ngini = 0.444\nsamples = 12\nvalue = [8, 4]\nclass = No", fillcolor="#f2c09c"] ;
312 -> 313 ;
314 [label="gini = 0.0\nsamples = 8\nvalue = [8, 0]\nclass = No", fillcolor="#e58139"] ;
313 -> 314 ;
315 [label="gini = 0.0\nsamples = 4\nvalue = [0, 4]\nclass = Yes", fillcolor="#399de5"] ;
313 -> 315 ;
316 [label="Number of Open Complaints <= 2.5\ngini = 0.043\nsamples = 136\nvalue = [133, 3]\nclass = No", fillcolor="#e6843d"] ;
312 -> 316 ;
317 [label="gini = 0.0\nsamples = 126\nvalue = [126, 0]\nclass = No", fillcolor="#e58139"] ;
316 -> 317 ;
318 [label="Location Code <= 1.5\ngini = 0.42\nsamples = 10\nvalue = [7, 3]\nclass = No", fillcolor="#f0b78e"] ;
316 -> 318 ;
319 [label="gini = 0.0\nsamples = 6\nvalue = [6, 0]\nclass = No", fillcolor="#e58139"] ;
318 -> 319 ;
320 [label="Number of Open Complaints <= 3.5\ngini = 0.375\nsamples = 4\nvalue = [1, 3]\nclass = Yes", fillcolor="#7bbeee"] ;
318 -> 320 ;
321 [label="gini = 0.0\nsamples = 3\nvalue = [0, 3]\nclass = Yes", fillcolor="#399de5"] ;
320 -> 321 ;
322 [label="gini = 0.0\nsamples = 1\nvalue = [1, 0]\nclass = No", fillcolor="#e58139"] ;
320 -> 322 ;
}